=== Run information ===

Scheme:       weka.classifiers.trees.J48 -C 0.25 -M 2
Relation:     voice_norm
Instances:    3168
Attributes:   21
              meanfreq
              sd
              median
              Q25
              Q75
              IQR
              skew
              kurt
              sp.ent
              sfm
              mode
              centroid
              meanfun
              minfun
              maxfun
              meandom
              mindom
              maxdom
              dfrange
              modindx
              label
Test mode:    10-fold cross-validation

=== Classifier model (full training set) ===

J48 pruned tree
------------------

meanfun <= 0.473689
|   IQR <= 0.285682
|   |   meanfun <= 0.422405
|   |   |   sfm <= 0.592978
|   |   |   |   IQR <= 0.230417
|   |   |   |   |   meanfun <= 0.398519
|   |   |   |   |   |   maxdom <= 0.018942: female (2.0)
|   |   |   |   |   |   maxdom > 0.018942: male (21.0)
|   |   |   |   |   meanfun > 0.398519: female (9.0/1.0)
|   |   |   |   IQR > 0.230417: male (46.0)
|   |   |   sfm > 0.592978
|   |   |   |   Q25 <= 0.479721: male (2.0)
|   |   |   |   Q25 > 0.479721: female (11.0)
|   |   meanfun > 0.422405
|   |   |   minfun <= 0.194764
|   |   |   |   maxdom <= 0.253395: female (26.0)
|   |   |   |   maxdom > 0.253395
|   |   |   |   |   minfun <= 0.15231
|   |   |   |   |   |   mindom <= 0.129032
|   |   |   |   |   |   |   Q75 <= 0.756885: female (2.0)
|   |   |   |   |   |   |   Q75 > 0.756885: male (2.0)
|   |   |   |   |   |   mindom > 0.129032: male (2.0)
|   |   |   |   |   minfun > 0.15231: female (12.0)
|   |   |   minfun > 0.194764
|   |   |   |   dfrange <= 0.392704: male (8.0/1.0)
|   |   |   |   dfrange > 0.392704: female (4.0)
|   IQR > 0.285682
|   |   meanfun <= 0.422343: male (1282.0/4.0)
|   |   meanfun > 0.422343
|   |   |   minfun <= 0.162468
|   |   |   |   sfm <= 0.868032
|   |   |   |   |   IQR <= 0.40072
|   |   |   |   |   |   sd <= 0.470391: male (7.0/1.0)
|   |   |   |   |   |   sd > 0.470391
|   |   |   |   |   |   |   mode <= 0.582581: female (8.0)
|   |   |   |   |   |   |   mode > 0.582581: male (2.0)
|   |   |   |   |   IQR > 0.40072: male (12.0)
|   |   |   |   sfm > 0.868032: female (6.0)
|   |   |   minfun > 0.162468
|   |   |   |   IQR <= 0.329222
|   |   |   |   |   IQR <= 0.326711: male (15.0/1.0)
|   |   |   |   |   IQR > 0.326711: female (2.0)
|   |   |   |   IQR > 0.329222: male (135.0)
meanfun > 0.473689
|   meanfun <= 0.515406
|   |   IQR <= 0.244951
|   |   |   Q25 <= 0.61867
|   |   |   |   maxdom <= 0.29807: female (17.0)
|   |   |   |   maxdom > 0.29807
|   |   |   |   |   minfun <= 0.043907: female (2.0)
|   |   |   |   |   minfun > 0.043907: male (3.0)
|   |   |   Q25 > 0.61867: female (72.0)
|   |   IQR > 0.244951
|   |   |   sfm <= 0.638426
|   |   |   |   IQR <= 0.33217
|   |   |   |   |   maxdom <= 0.35025: male (4.0)
|   |   |   |   |   maxdom > 0.35025: female (4.0)
|   |   |   |   IQR > 0.33217: male (28.0)
|   |   |   sfm > 0.638426
|   |   |   |   median <= 0.519185
|   |   |   |   |   maxfun <= 0.88834: female (2.0)
|   |   |   |   |   maxfun > 0.88834: male (3.0)
|   |   |   |   median > 0.519185: female (20.0)
|   meanfun > 0.515406: female (1397.0/18.0)

Number of Leaves  : 	33

Size of the tree : 	65


Time taken to build model: 0.05 seconds

=== Stratified cross-validation ===
=== Summary ===

Correctly Classified Instances        3063               96.6856 %
Incorrectly Classified Instances       105                3.3144 %
Kappa statistic                          0.9337
Mean absolute error                      0.0397
Root mean squared error                  0.1769
Relative absolute error                  7.9332 %
Root relative squared error             35.3726 %
Total Number of Instances             3168     

=== Detailed Accuracy By Class ===

                 TP Rate  FP Rate  Precision  Recall   F-Measure  MCC      ROC Area  PRC Area  Class
                 0.963    0.030    0.970      0.963    0.967      0.934    0.970     0.962     male
                 0.970    0.037    0.964      0.970    0.967      0.934    0.970     0.951     female
Weighted Avg.    0.967    0.033    0.967      0.967    0.967      0.934    0.970     0.957     

=== Confusion Matrix ===

    a    b   <-- classified as
 1526   58 |    a = male
   47 1537 |    b = female

